<?xml version="1.0"?>
<opencv_storage>
<stage1>
  <maxWeakCount>7</maxWeakCount>
  <stageThreshold>-1.4014623165130615e+00</stageThreshold>
  <weakClassifiers>
    <_>
      <internalNodes>
        0 -1 123556 -6.7997172474861145e-02</internalNodes>
      <leafValues>
        4.1666665673255920e-01 -7.4354410171508789e-01</leafValues></_>
    <_>
      <internalNodes>
        0 -1 103595 3.1212536618113518e-02</internalNodes>
      <leafValues>
        -4.6229118108749390e-01 4.8942184448242188e-01</leafValues></_>
    <_>
      <internalNodes>
        0 -1 90417 -3.4312706440687180e-02</internalNodes>
      <leafValues>
        6.3954079151153564e-01 -2.4321247637271881e-01</leafValues></_>
    <_>
      <internalNodes>
        0 -1 2334 -5.7586830109357834e-02</internalNodes>
      <leafValues>
        7.0592987537384033e-01 -1.9422674179077148e-01</leafValues></_>
    <_>
      <internalNodes>
        0 -1 68967 -1.9235854968428612e-02</internalNodes>
      <leafValues>
        7.4867552518844604e-01 -1.5850690007209778e-01</leafValues></_>
    <_>
      <internalNodes>
        0 -1 141496 -5.1612846553325653e-02</internalNodes>
      <leafValues>
        7.2637081146240234e-01 -1.5329675376415253e-01</leafValues></_>
    <_>
      <internalNodes>
        0 -1 75973 -6.8481311202049255e-02</internalNodes>
      <leafValues>
        5.5361580848693848e-01 -2.3579095304012299e-01</leafValues></_></weakClassifiers></stage1>
</opencv_storage>
