<?xml version="1.0"?>
<opencv_storage>
<stage2>
  <maxWeakCount>10</maxWeakCount>
  <stageThreshold>-1.8216735124588013e+00</stageThreshold>
  <weakClassifiers>
    <_>
      <internalNodes>
        0 -1 1697 -6.2856179475784302e-01</internalNodes>
      <leafValues>
        9.1666668653488159e-01 -7.4019181728363037e-01</leafValues></_>
    <_>
      <internalNodes>
        0 -1 121346 -8.0319837434217334e-04</internalNodes>
      <leafValues>
        -8.7900775671005249e-01 -2.6472369208931923e-02</leafValues></_>
    <_>
      <internalNodes>
        0 -1 162161 1.1579029960557818e-03</internalNodes>
      <leafValues>
        1.9442704319953918e-01 -6.7379271984100342e-01</leafValues></_>
    <_>
      <internalNodes>
        0 -1 121346 7.8649795614182949e-04</internalNodes>
      <leafValues>
        1.7452245950698853e-01 -7.6315295696258545e-01</leafValues></_>
    <_>
      <internalNodes>
        0 -1 162161 -9.6713774837553501e-04</internalNodes>
      <leafValues>
        -4.3653756380081177e-01 3.0295935273170471e-01</leafValues></_>
    <_>
      <internalNodes>
        0 -1 61128 -4.3588176369667053e-02</internalNodes>
      <leafValues>
        5.9121710062026978e-01 -2.6354035735130310e-01</leafValues></_>
    <_>
      <internalNodes>
        0 -1 162288 1.8986375653184950e-04</internalNodes>
      <leafValues>
        1.7379984259605408e-01 -6.4045602083206177e-01</leafValues></_>
    <_>
      <internalNodes>
        0 -1 27760 -1.3426062650978565e-03</internalNodes>
      <leafValues>
        -5.2797871828079224e-01 2.5412026047706604e-01</leafValues></_>
    <_>
      <internalNodes>
        0 -1 161466 -1.8776264914777130e-04</internalNodes>
      <leafValues>
        -5.7718223333358765e-01 1.7562295496463776e-01</leafValues></_>
    <_>
      <internalNodes>
        0 -1 122032 -2.4392071645706892e-03</internalNodes>
      <leafValues>
        2.7791652083396912e-01 -3.8922894001007080e-01</leafValues></_></weakClassifiers></stage2>
</opencv_storage>
